<?xml version="1.0"?>
<opencv_storage>
<stage8>
  <maxWeakCount>8</maxWeakCount>
  <stageThreshold>-1.7617280483245850e+00</stageThreshold>
  <weakClassifiers>
    <_>
      <internalNodes>
        0 -1 2058273 2.8716256842017174e-02</internalNodes>
      <leafValues>
        -8.9460319280624390e-01 5.4285717010498047e-01</leafValues></_>
    <_>
      <internalNodes>
        0 -1 2183072 2.5424854829907417e-02</internalNodes>
      <leafValues>
        -6.1787515878677368e-01 3.4079864621162415e-01</leafValues></_>
    <_>
      <internalNodes>
        0 -1 2220140 1.1088704923167825e-03</internalNodes>
      <leafValues>
        -7.0503360033035278e-01 1.6384869813919067e-01</leafValues></_>
    <_>
      <internalNodes>
        0 -1 3129972 -1.6313595697283745e-03</internalNodes>
      <leafValues>
        5.7328444719314575e-01 -2.9923450946807861e-01</leafValues></_>
    <_>
      <internalNodes>
        0 -1 1751890 1.9455711299087852e-04</internalNodes>
      <leafValues>
        -5.8244532346725464e-01 2.6997736096382141e-01</leafValues></_>
    <_>
      <internalNodes>
        0 -1 2424761 1.2430549832060933e-03</internalNodes>
      <leafValues>
        1.9839413464069366e-01 -7.4273544549942017e-01</leafValues></_>
    <_>
      <internalNodes>
        0 -1 1471836 -9.2787064611911774e-02</internalNodes>
      <leafValues>
        8.3264201879501343e-01 -1.8742260336875916e-01</leafValues></_>
    <_>
      <internalNodes>
        0 -1 1505564 1.3989241793751717e-02</internalNodes>
      <leafValues>
        -3.9481273293495178e-01 5.3330630064010620e-01</leafValues></_></weakClassifiers></stage8>
</opencv_storage>
