<?xml version="1.0"?>
<opencv_storage>
<stage1>
  <maxWeakCount>5</maxWeakCount>
  <stageThreshold>-1.9195700883865356e+00</stageThreshold>
  <weakClassifiers>
    <_>
      <internalNodes>
        0 -1 225227 -3.9304152131080627e-02</internalNodes>
      <leafValues>
        2.5925925374031067e-01 -9.2282539606094360e-01</leafValues></_>
    <_>
      <internalNodes>
        0 -1 1479026 -8.4848299622535706e-02</internalNodes>
      <leafValues>
        2.9859957098960876e-01 -7.7495765686035156e-01</leafValues></_>
    <_>
      <internalNodes>
        0 -1 1026168 2.9903133399784565e-03</internalNodes>
      <leafValues>
        -7.0137703418731689e-01 3.9416557550430298e-01</leafValues></_>
    <_>
      <internalNodes>
        0 -1 236245 -2.3210144718177617e-04</internalNodes>
      <leafValues>
        2.5108954310417175e-01 -8.7021064758300781e-01</leafValues></_>
    <_>
      <internalNodes>
        0 -1 8859682 -9.0185159933753312e-05</internalNodes>
      <leafValues>
        -8.6704218387603760e-01 2.8586360812187195e-01</leafValues></_></weakClassifiers></stage1>
</opencv_storage>
